
float kernel[64][3][3][3] =
{
{
{
{0.2572346329689026,0.3593655526638031,0.2034272700548172},
{-0.10043426603078842,-0.15803897380828857,-0.09803903102874756},
{-0.07055681198835373,-0.18863211572170258,-0.19638600945472717}},
{
{0.5501869916915894,0.6782213449478149,0.46465420722961426},
{-0.14836277067661285,-0.27109193801879883,-0.18449611961841583},
{-0.20943047106266022,-0.4640083312988281,-0.4478822648525238}
},
{
{0.3146834969520569,0.42987483739852905,0.31338825821876526},
{-0.15516893565654755,-0.2114144265651703,-0.07712272554636002},
{-0.11449681967496872,-0.24798788130283356,-0.2256084829568863}
}
},
{
{
{-0.004815441090613604,0.0001834129507187754,-0.0019403405021876097},
{-0.07333862036466599,-0.009987733326852322,-0.006727311294525862},
{-0.44589778780937195,-0.025994854047894478,0.007878100499510765}
},
{
{0.005038538482040167,0.020459147170186043,-0.005074741784483194},
{-0.12817111611366272,0.016170330345630646,0.011950141750276089},
{-0.5154200196266174,-0.030520761385560036,0.002401441102847457}
},
{
{0.013180975802242756,0.006672389805316925,0.012913019396364689},
{0.05174761638045311,0.051507193595170975,0.004343897104263306},
{-0.12393270432949066,0.07094554603099823,0.02257230319082737}
}
},
{
{
{0.08927812427282333,0.11772014945745468,0.0735250860452652},
{0.16231927275657654,0.2939232885837555,0.2168905884027481},
{-0.29294294118881226,-0.41114869713783264,-0.2410401999950409}
},
{
{0.1893860101699829,0.22124458849430084,0.1574905514717102},
{0.19754528999328613,0.43484658002853394,0.35230860114097595},
{-0.4998513460159302,-0.6726410388946533,-0.40753719210624695}
},
{
{0.0030880954582244158,-0.03213288635015488,-0.09934712946414948},
{0.17135334014892578,0.32869842648506165,0.22129854559898376},
{-0.16842743754386902,-0.26930803060531616,-0.13516765832901}
}
},
{
{
{0.168704554438591,0.18609605729579926,0.08649566769599915},
{0.18717582523822784,0.1849818229675293,0.10386469215154648},
{0.15253955125808716,0.12786051630973816,0.05942276120185852}
},
{
{-0.3361161947250366,-0.36386629939079285,-0.1428728997707367},
{-0.37978532910346985,-0.40470802783966064,-0.14625553786754608},
{-0.1918925940990448,-0.17298437654972076,0.05244062468409538}
},
{
{0.15554876625537872,0.2060893028974533,0.031933143734931946},
{0.22829952836036682,0.23622876405715942,0.037439242005348206},
{0.04463335499167442,0.032227590680122375,-0.0809168592095375}
}
},
{
{
{0.1360125094652176,-0.026487184688448906,-0.14569632709026337},
{0.04887864366173744,0.0327654592692852,-0.04862750694155693},
{-0.15107250213623047,0.010451070964336395,0.15294891595840454}
},
{
{0.4155653119087219,-0.038506314158439636,-0.4366232752799988},
{0.04392620921134949,0.1675695776939392,-0.05429370328783989},
{-0.473135381937027,-0.021982433274388313,0.42832908034324646}
},
{
{0.2634694278240204,-0.04385770857334137,-0.2669917345046997},
{0.05579366534948349,0.09205399453639984,-0.06862405687570572},
{-0.3327346742153168,-0.01414485089480877,0.31543076038360596}
}
},
{
{
{-0.18157841265201569,-0.14719423651695251,-0.16381600499153137},
{0.05713948607444763,0.0024457748513668776,-0.10870081931352615},
{0.12564493715763092,0.17255933582782745,0.22698599100112915}
},
{
{-0.062019333243370056,-0.015598183497786522,0.04897930473089218},
{0.18724434077739716,0.07035039365291595,-0.07925726473331451},
{-0.15840408205986023,-0.11911331862211227,0.07823990285396576}
},
{
{0.26880207657814026,0.33944228291511536,0.35590222477912903},
{0.2389896661043167,0.17070280015468597,-0.024336550384759903},
{-0.5736746191978455,-0.5332863926887512,-0.28620249032974243}
}
},
{
{
{0.08392725139856339,-0.24664129316806793,-0.07749523222446442},
{-0.19427365064620972,-0.5787805318832397,-0.37761133909225464},
{-0.10343979299068451,-0.3753582537174225,-0.20738323032855988}
},
{
{0.05388966575264931,0.3301908075809479,0.24870450794696808},
{0.31672728061676025,0.7093860507011414,0.5149742960929871},
{0.24517711997032166,0.525705099105835,0.35697031021118164}
},
{
{-0.059028930962085724,-0.11266190558671951,-0.1063159629702568},
{-0.16216959059238434,-0.20351329445838928,-0.1997269243001938},
{-0.1571524292230606,-0.20246417820453644,-0.20428046584129333}
}
},
{
{
{-0.03562098369002342,0.010473956353962421,-0.031563904136419296},
{0.0037230004090815783,-0.049193207174539566,-0.3231509029865265},
{-0.0007633076165802777,-0.029074685648083687,-0.03739047050476074}
},
{
{-0.0006220744107849896,-0.028499586507678032,-0.14598633348941803},
{0.0328766331076622,-0.0383528470993042,-0.3359772264957428},
{0.03382153809070587,0.029322601854801178,0.008197814226150513}
},
{
{0.01522778905928135,-0.000938782817684114,-0.09602080285549164},
{0.024900486692786217,0.007117884233593941,-0.258148729801178},
{0.008332651108503342,0.009197250939905643,-0.03528441861271858}
}
},
{
{
{-0.12623687088489532,0.10137918591499329,-0.016920339316129684},
{-0.1429145187139511,0.16257917881011963,-0.039242301136255264},
{-0.007187649607658386,0.08632002025842667,-0.008425201289355755}
},
{
{-0.44435739517211914,0.23222507536411285,0.06783117353916168},
{-0.4848376512527466,0.4321763515472412,0.024234946817159653},
{-0.15033549070358276,0.3006497323513031,-0.003474167548120022}
},
{
{-0.3523174822330475,0.2481953501701355,0.02476518414914608},
{-0.3607991933822632,0.38668638467788696,-0.0452718660235405},
{-0.1153862476348877,0.28565356135368347,-0.0519527830183506}
}
},
{
{
{-0.18445751070976257,0.29864636063575745,-0.12354331463575363},
{0.3700786530971527,-0.5201473832130432,0.20594558119773865},
{-0.1728699654340744,0.24823836982250214,-0.1058911457657814}
},
{
{-0.23485101759433746,0.3554637134075165,-0.10932213813066483},
{0.5248959064483643,-0.8781661987304688,0.30515679717063904},
{-0.24220944941043854,0.3567653298377991,-0.1160159632563591}
},
{
{-0.24145951867103577,0.36847448348999023,-0.1458408534526825},
{0.40039756894111633,-0.6152243614196777,0.2800517678260803},
{-0.15969423949718475,0.2767792344093323,-0.16018562018871307}
}
},
{
{
{0.08693362772464752,0.18893104791641235,0.10514886677265167},
{-0.20946253836154938,-0.3452674448490143,-0.22652365267276764},
{0.11076419055461884,0.1890133023262024,0.109626904129982}
},
{
{0.28597283363342285,0.4793649911880493,0.28947290778160095},
{-0.6274412274360657,-0.9198471903800964,-0.6669197678565979},
{0.30786198377609253,0.5123826861381531,0.325853556394577}
},
{
{0.208096444606781,0.39726048707962036,0.23316629230976105},
{-0.4810744524002075,-0.6960256099700928,-0.5036112070083618},
{0.22363968193531036,0.36303818225860596,0.2521151900291443}
}
},
{
{
{0.0035636539105325937,0.12535695731639862,-0.20663553476333618},
{-0.03844842687249184,0.30311399698257446,0.12919411063194275},
{-0.3350110650062561,-0.0172587838023901,0.06242869049310684}
},
{
{0.06705517321825027,0.24080973863601685,-0.4286811351776123},
{-0.10879992693662643,0.6466278433799744,0.19011671841144562},
{-0.6281449794769287,-0.07510416209697723,0.09446028620004654}
},
{
{0.04743759334087372,0.08433426171541214,-0.3880596458911896},
{0.03059716708958149,0.4281311631202698,0.04494409263134003},
{-0.28595754504203796,0.03190559521317482,0.021589869633316994}
}
},
{
{
{-0.0069048162549734116,0.14873869717121124,0.2329905778169632},
{-0.16641123592853546,-0.08856231719255447,0.018730895593762398},
{-0.21634861826896667,-0.21989165246486664,-0.10149664431810379}
},
{
{0.2341376394033432,0.19623051583766937,0.16159288585186005},
{0.1781424880027771,0.17592450976371765,0.15133380889892578},
{0.09729857742786407,0.0975240021944046,0.15375033020973206}
},
{
{-0.022718438878655434,0.05768579617142677,0.22959354519844055},
{-0.24688851833343506,-0.26530587673187256,-0.06720153242349625},
{-0.24260947108268738,-0.3310851752758026,-0.1741432547569275}
}
},
{
{
{0.042635928839445114,0.04484165832400322,-0.0010837966110557318},
{0.04603584483265877,0.0740920677781105,0.03703106939792633},
{-0.06665226072072983,-0.020353464409708977,0.023044997826218605}
},
{
{0.16687792539596558,0.1988360732793808,0.15973012149333954},
{0.16278836131095886,0.15090785920619965,0.15386240184307098},
{0.20471645891666412,0.21541224420070648,0.2357565313577652}
},
{
{-0.23752042651176453,-0.21927709877490997,-0.21407420933246613},
{-0.24655190110206604,-0.3075955808162689,-0.2964441776275635},
{-0.01641029678285122,-0.09606087952852249,-0.08996547013521194}
}
},
{
{
{0.03182314708828926,0.2898683547973633,0.23496393859386444},
{0.0013949422864243388,0.04226028919219971,0.010739881545305252},
{0.00501408101990819,-0.011041177436709404,-0.027948135510087013}
},
{
{0.014746381901204586,0.1601366251707077,0.11676659435033798},
{0.02642703801393509,0.030896298587322235,-0.006845548748970032},
{-0.014393247663974762,-0.018881957978010178,-0.02826949581503868}
},
{
{0.048658017069101334,0.1853715479373932,0.16647405922412872},
{0.031159045174717903,0.12089656293392181,0.12026471644639969},
{-0.005814643576741219,0.06172351911664009,0.05654314160346985}
}
},
{
{
{-0.05212230607867241,0.20751427114009857,-0.09584424644708633},
{-0.1588057428598404,0.34139484167099,-0.23914097249507904},
{-0.07808780670166016,0.20173020660877228,-0.11579971015453339}
},
{
{-0.17969752848148346,0.5068041086196899,-0.260775625705719},
{-0.4019283056259155,0.8485922813415527,-0.522647500038147},
{-0.21407724916934967,0.5356132984161377,-0.2953529953956604}
},
{
{-0.13783274590969086,0.36327114701271057,-0.16270175576210022},
{-0.3370969891548157,0.5512198209762573,-0.33087730407714844},
{-0.1776757538318634,0.3845441937446594,-0.16712287068367004}
}
},
{
{
{-0.02236870676279068,0.07065660506486893,-0.033049073070287704},
{0.13598603010177612,0.3780616819858551,0.07212192565202713},
{-0.08318805694580078,0.0647721067070961,0.031597934663295746}
},
{
{-0.007159416098147631,0.037535540759563446,-0.006805862300097942},
{0.10623785853385925,0.26009470224380493,0.04356541112065315},
{-0.026729686185717583,0.050771549344062805,0.002869413932785392}
},
{
{-0.020113607868552208,-0.016766833141446114,-0.08526614308357239},
{0.08764024823904037,0.18775935471057892,-0.05552706494927406},
{-0.014242975041270256,0.0212181955575943,-0.0714709535241127}
}
},
{
{
{-0.21320953965187073,-0.06429403275251389,0.2443530559539795},
{0.10172668099403381,0.307097464799881,-0.2949294447898865},
{0.12704084813594818,-0.16898511350154877,-0.005960678216069937}
},
{
{-0.26208752393722534,-0.015310965478420258,0.3017278015613556},
{0.09247036278247833,0.4601549804210663,-0.5141887068748474},
{0.13019725680351257,-0.3390679657459259,0.10128358751535416}
},
{
{-0.11614824831485748,-0.08109906315803528,0.22263120114803314},
{0.02140989527106285,0.3094463348388672,-0.32582536339759827},
{0.06486747413873672,-0.21517838537693024,0.1424531787633896}
}
},
{
{
{0.01994962990283966,-0.002041290979832411,0.0014986852183938026},
{-0.034482888877391815,-0.22731854021549225,0.02812865935266018},
{-0.00971787516027689,-0.021128032356500626,-0.01456219982355833}
},
{
{0.003615790978074074,-0.07700194418430328,0.020816927775740623},
{-0.12083015590906143,-0.4018668532371521,-0.026804156601428986},
{0.0518110990524292,-0.006315955426543951,0.034209322184324265}
},
{
{0.014086217619478703,-0.04044917970895767,0.03867186978459358},
{-0.11526463180780411,-0.3422792851924896,-0.007042290177196264},
{0.000008610291843069717,-0.03822074085474014,0.0345500223338604}
}
},
{
{
{-0.39658233523368835,-0.27003905177116394,0.21689289808273315},
{-0.4506182074546814,-0.004903314169496298,0.4222852289676666},
{-0.23460306227207184,0.26653674244880676,0.42777568101882935}
},
{
{0.028005346655845642,0.05702577531337738,-0.003862457349896431},
{0.028594309464097023,0.033965349197387695,-0.06132019683718681},
{-0.00030902778962627053,-0.012524505145847797,-0.06677907705307007}
},
{
{0.38369807600975037,0.27161121368408203,-0.23036760091781616},
{0.45689740777015686,0.0046500954777002335,-0.4365241527557373},
{0.2529587745666504,-0.26188233494758606,-0.43002569675445557}
}
},
{
{
{0.020289961248636246,-0.07423588633537292,-0.05593595281243324},
{0.045892003923654556,0.11007213592529297,0.027979116886854172},
{-0.11038034409284592,0.037595976144075394,-0.004946392960846424}
},
{
{-0.027963027358055115,-0.38405048847198486,-0.45970433950424194},
{0.29266420006752014,0.3336382508277893,-0.09206153452396393},
{-0.0906749814748764,0.2555601894855499,0.1698409467935562}
},
{
{-0.09794867783784866,-0.4939407408237457,-0.5545675158500671},
{0.3363814055919647,0.3090924918651581,-0.1207713633775711},
{0.06061392277479172,0.355142205953598,0.22093921899795532}
}
},
{
{
{0.14988817274570465,0.1872546374797821,0.1255120486021042},
{0.14643244445323944,0.1691453605890274,0.15548960864543915},
{0.11417876929044724,0.16449379920959473,0.08856985718011856}
},
{
{-0.25999388098716736,-0.4280437231063843,-0.23954184353351593},
{-0.3523564636707306,-0.5504992604255676,-0.34709155559539795},
{-0.1714615523815155,-0.322900652885437,-0.19446280598640442}
},
{
{0.09636766463518143,0.25509554147720337,0.1044682040810585},
{0.17566436529159546,0.38804322481155396,0.2051604688167572},
{0.04531130939722061,0.16708813607692719,0.07489669322967529}
}
},
{
{
{-0.011749480850994587,0.0365290492773056,0.01953182928264141},
{-0.011581271886825562,0.039854101836681366,0.031972143799066544},
{0.03812243789434433,-0.22834700345993042,0.008671569637954235}
},
{
{0.004834323190152645,-0.005046060774475336,0.00590806407853961},
{0.013354615308344364,-0.046644970774650574,0.0004947800771333277},
{-0.038395628333091736,-0.46695539355278015,-0.08031323552131653}
},
{
{0.029113320633769035,0.012147334404289722,0.012765120714902878},
{0.021098284050822258,-0.005940889939665794,0.016660748049616814},
{-0.014205328188836575,-0.3801206052303314,-0.0403219573199749}
}
},
{
{
{-0.16452504694461823,0.3112642765045166,-0.13156305253505707},
{0.01781134121119976,0.0021883449517190456,-0.00888051651418209},
{0.13693879544734955,-0.25399112701416016,0.10778176039457321}
},
{
{-0.3477957546710968,0.6691715121269226,-0.3280605971813202},
{0.01410160306841135,-0.06437405198812485,0.023717233911156654},
{0.3114226460456848,-0.6294283866882324,0.3172172009944916}
},
{
{-0.2368524819612503,0.46702760457992554,-0.2565366327762604},
{0.004622664302587509,-0.008236604742705822,-0.000995968352071941},
{0.2164788842201233,-0.41070255637168884,0.23252134025096893}
}
},
{
{
{-0.0036651617847383022,-0.048905014991760254,-0.05614660307765007},
{-0.10604970902204514,-0.1653909683227539,0.020124001428484917},
{-0.14482782781124115,0.024252919480204582,0.28907543420791626}
},
{
{0.11133190244436264,0.021606814116239548,-0.1417151838541031},
{-0.02928753010928631,-0.2400653064250946,-0.10562249273061752},
{-0.12267926335334778,-0.05079098790884018,0.30797651410102844}
},
{
{0.25103598833084106,0.2734817862510681,-0.12413519620895386},
{0.2542147636413574,-0.053142983466386795,-0.30366963148117065},
{0.0031525162048637867,-0.21980422735214233,-0.1522529572248459}
}
},
{
{
{0.02215510606765747,0.24977560341358185,0.1638379544019699},
{-0.27336806058883667,-0.10098550468683243,0.23751388490200043},
{-0.0050592017360031605,-0.2726215422153473,0.0020473164040595293}
},
{
{0.01954013854265213,0.5480911731719971,0.3826683759689331},
{-0.56830233335495,-0.26786142587661743,0.47358864545822144},
{0.021199405193328857,-0.5912320017814636,-0.08370943367481232}
},
{
{0.07806316763162613,0.2976752817630768,0.04935319721698761},
{-0.261880487203598,-0.1594526767730713,0.23649610579013824},
{0.13941095769405365,-0.29361629486083984,-0.048319317400455475}
}
},
{
{
{-0.02219752036035061,-0.027460509911179543,-0.002043958753347397},
{-0.042896565049886703,-0.09650691598653793,-0.044762685894966125},
{0.260743111371994,-0.004420277196913958,-0.12813062965869904}
},
{
{-0.0009014556999318302,0.008591686375439167,-0.016289561986923218},
{0.005362208932638168,-0.008746656589210033,0.011836917139589787},
{0.2688415050506592,0.10144639760255814,0.017337437719106674}
},
{
{0.03287612646818161,0.007121942471712828,-0.016812285408377647},
{0.10367180407047272,0.07487170398235321,0.027750788256525993},
{0.3764805197715759,0.24366965889930725,0.1188698261976242}
}
},
{
{
{0.05556100234389305,-0.040451083332300186,-0.09341448545455933},
{0.03229463845491409,0.05340065807104111,-0.058756403625011444},
{0.09216560423374176,0.005961423274129629,-0.05190976709127426}
},
{
{0.02466517686843872,0.2503000795841217,-0.02217891812324524},
{-0.3098968267440796,0.3019539713859558,0.13865214586257935},
{-0.3244249224662781,-0.08975698798894882,0.03694620355963707}
},
{
{-0.08418457210063934,0.4232993423938751,0.19668754935264587},
{-0.5392656326293945,0.33139410614967346,0.295057088136673},
{-0.6513565182685852,-0.15073154866695404,0.17649094760417938}
}
},
{
{
{-0.015423191711306572,0.05784492939710617,0.14538119733333588},
{-0.19770961999893188,-0.1419755518436432,-0.08418699353933334},
{-0.2606302499771118,-0.30260592699050903,-0.1363586038351059}
},
{
{0.052683088928461075,0.09614246338605881,0.16994643211364746},
{-0.049290891736745834,-0.02080099657177925,0.011632727459073067},
{-0.17815028131008148,-0.17019104957580566,-0.07723027467727661}
},
{
{0.20112527906894684,0.16211818158626556,0.21988995373249054},
{0.11156443506479263,0.023186733946204185,0.09618442505598068},
{0.041080303490161896,0.012766278348863125,0.11130109429359436}
}
},
{
{
{0.1846313178539276,0.16023647785186768,0.25330743193626404},
{0.14997535943984985,0.08578488975763321,0.10025342553853989},
{0.052202146500349045,0.06972178816795349,0.12023108452558517}
},
{
{-0.02063458226621151,-0.030250519514083862,0.20602665841579437},
{-0.19107414782047272,-0.2953996956348419,-0.16185182332992554},
{-0.23321431875228882,-0.2652996778488159,-0.16078366339206696}
},
{
{0.05938158929347992,0.15136659145355225,0.2994330823421478},
{-0.10467270761728287,-0.060162585228681564,0.02246783673763275},
{-0.1940942406654358,-0.14688628911972046,-0.041833240538835526}
}
},
{
{
{-0.03196526691317558,0.07285868376493454,-0.0058276476338505745},
{-0.002750336192548275,0.1389440894126892,0.013153200037777424},
{-0.15400254726409912,-0.07180966436862946,-0.09218008816242218}
},
{
{-0.01844010129570961,0.10955397039651871,-0.04064396396279335},
{0.06523202359676361,0.30482250452041626,0.06542245298624039},
{-0.062184277921915054,0.13144904375076294,0.03344998136162758}
},
{
{-0.16013257205486298,0.02203299291431904,-0.22627116739749908},
{-0.1813228577375412,0.17022015154361725,-0.17893379926681519},
{-0.23307949304580688,-0.01448201946914196,-0.13209739327430725}
}
},
{
{
{0.14688408374786377,-0.1739407479763031,0.024237073957920074},
{0.21468374133110046,-0.2847980856895447,0.08182267844676971},
{0.1336633265018463,-0.1513970047235489,0.028013698756694794}
},
{
{0.33760976791381836,-0.4521096348762512,0.09940178692340851},
{0.5116773247718811,-0.7110236883163452,0.21168527007102966},
{0.37309056520462036,-0.46436160802841187,0.06770049780607224}
},
{
{0.23328222334384918,-0.3340454697608948,0.09973297268152237},
{0.3479633033275604,-0.4871968924999237,0.18336965143680573},
{0.21531382203102112,-0.33671990036964417,0.08678041398525238}
}
},
{
{
{-0.19626298546791077,-0.2793061435222626,0.06231890991330147},
{-0.2927442193031311,0.040087927132844925,0.31815004348754883},
{-0.04152919724583626,0.2520070970058441,0.19472654163837433}
},
{
{-0.34824052453041077,-0.46408095955848694,0.09150958061218262},
{-0.459825724363327,-0.04140159860253334,0.4649239182472229},
{-0.09721507132053375,0.34225472807884216,0.38363027572631836}
},
{
{0.4538900852203369,0.1694803386926651,-0.09116622060537338},
{0.29611778259277344,-0.013739592395722866,-0.22315680980682373},
{0.06945551186800003,-0.2033235877752304,-0.3945322632789612}
}
},
{
{
{0.2305624783039093,0.31935927271842957,0.1843249797821045},
{0.2049838751554489,0.29238080978393555,0.2086755633354187},
{0.08853571861982346,0.154513418674469,0.10023903101682663}
},
{
{-0.20643167197704315,-0.16507594287395477,-0.18411746621131897},
{-0.1368287354707718,-0.11655279994010925,-0.1638958603143692},
{-0.1041237935423851,-0.12678968906402588,-0.143864244222641}
},
{
{-0.1052347719669342,-0.19726479053497314,-0.05595918372273445},
{-0.11270353198051453,-0.20763783156871796,-0.09904708713293076},
{0.016469890251755714,-0.05986453965306282,0.0003869743668474257}
}
},
{
{
{0.034773726016283035,0.0031139652710407972,0.1445106565952301},
{0.009768054820597172,-0.13193580508232117,0.007826521061360836},
{0.15992137789726257,-0.046348653733730316,-0.03973226994276047}
},
{
{0.030814608559012413,0.016307028010487556,0.16313107311725616},
{0.027722137048840523,-0.039251577109098434,0.06139000505208969},
{0.10133892297744751,0.013795454055070877,0.0076066553592681885}
},
{
{-0.09410066157579422,-0.012142392806708813,0.26925310492515564},
{-0.11157222837209702,-0.16392239928245544,0.027463186532258987},
{0.046754516661167145,-0.041128143668174744,-0.05606319010257721}
}
},
{
{
{0.001550961285829544,0.2157580703496933,0.08741793036460876},
{-0.15075699985027313,0.12754122912883759,0.12218550592660904},
{-0.2151186168193817,-0.11843498051166534,0.025235388427972794}
},
{
{-0.19406162202358246,0.25220203399658203,0.48403123021125793},
{-0.47903576493263245,-0.025369537994265556,0.3552371561527252},
{-0.4816659092903137,-0.2867603003978729,0.1689530462026596}
},
{
{0.159573033452034,-0.34818264842033386,-0.4643244743347168},
{0.5143458247184753,-0.038526374846696854,-0.43570569157600403},
{0.5382965207099915,0.3402218222618103,-0.17031408846378326}
}
},
{
{
{0.1587160974740982,0.024629132822155952,-0.23904381692409515},
{0.16070394217967987,0.073542520403862,-0.16717088222503662},
{0.13750043511390686,0.07972361147403717,-0.17317147552967072}
},
{
{0.0023728348314762115,-0.04029045253992081,0.06978747248649597},
{0.05523921176791191,-0.23294009268283844,0.1337723731994629},
{0.12483260780572891,-0.14925996959209442,-0.0011188900098204613}
},
{
{-0.332290381193161,-0.004000077024102211,0.590285062789917},
{-0.3182181715965271,-0.37170377373695374,0.5882433652877808},
{-0.21280215680599213,-0.3486472964286804,0.37557291984558105}
}
},
{
{
{-0.10638359189033508,-0.23111756145954132,-0.11750119179487228},
{0.22474849224090576,0.3464497923851013,0.21996371448040009},
{-0.059954483062028885,-0.1828317940235138,-0.07318788766860962}
},
{
{-0.2807433307170868,-0.5285028219223022,-0.3069855868816376},
{0.6003119945526123,0.8848927617073059,0.5708667635917664},
{-0.23463307321071625,-0.45828303694725037,-0.2511914372444153}
},
{
{-0.19609755277633667,-0.3761318027973175,-0.16090628504753113},
{0.4028339684009552,0.6036286354064941,0.4306035339832306},
{-0.19481921195983887,-0.34920039772987366,-0.16793708503246307}
}
},
{
{
{-0.01761045679450035,-0.0221487358212471,-0.22967299818992615},
{0.11694671213626862,0.15817606449127197,-0.04987325519323349},
{0.15796594321727753,0.2585606276988983,0.09274113923311234}
},
{
{0.03535810858011246,0.000951241294387728,-0.13055957853794098},
{0.10844879597425461,0.08841195702552795,-0.06258273869752884},
{0.118467316031456,0.1889842003583908,0.016018757596611977}
},
{
{-0.12007933109998703,-0.15909411013126373,-0.10954412817955017},
{-0.036600664258003235,-0.15525829792022705,-0.2196670025587082},
{0.1251247525215149,0.01066642440855503,-0.17577683925628662}
}
},
{
{
{0.10163862258195877,0.10764162987470627,0.10240592062473297},
{0.1482248455286026,0.12151822447776794,0.2260887175798416},
{0.17578914761543274,0.18252058327198029,0.1413802206516266}
},
{
{-0.0791609063744545,-0.04324103891849518,0.02579541690647602},
{-0.058375172317028046,-0.07147698104381561,0.1709529012441635},
{-0.07231128215789795,0.023177288472652435,0.11020348966121674}
},
{
{-0.17988215386867523,-0.16278451681137085,-0.09379568696022034},
{-0.19716212153434753,-0.2112700492143631,0.010639624670147896},
{-0.25471532344818115,-0.13636505603790283,-0.00761965848505497}
}
},
{
{
{-0.02897612191736698,0.1659291386604309,0.03127939999103546},
{0.14202472567558289,0.23864014446735382,-0.10018700361251831},
{0.01169554889202118,-0.13915619254112244,-0.30489444732666016}
},
{
{-0.04227088391780853,0.43369388580322266,0.05560436099767685},
{0.39416059851646423,0.4513997435569763,-0.3605711758136749},
{0.06191091984510422,-0.36070898175239563,-0.6595835089683533}
},
{
{-0.13737145066261292,0.28851938247680664,0.05433306097984314},
{0.22628429532051086,0.373995840549469,-0.2122168391942978},
{0.07018879055976868,-0.198469877243042,-0.4370232820510864}
}
},
{
{
{-0.44325608015060425,-0.4793831408023834,-0.28393518924713135},
{-0.2526063919067383,0.009379023686051369,0.22962401807308197},
{0.21620118618011475,0.48723968863487244,0.43901094794273376}
},
{
{-0.09005735069513321,-0.01309025939553976,0.021602364256978035},
{0.0574641153216362,0.07326176017522812,0.0340263769030571},
{0.07049688696861267,0.025659117847681046,-0.021604083478450775}
},
{
{0.43936270475387573,0.4551767110824585,0.25041940808296204},
{0.22537939250469208,-0.06899034231901169,-0.2690955698490143},
{-0.2775428593158722,-0.4535042345523834,-0.36825257539749146}
}
},
{
{
{-0.12305709719657898,0.026419876143336296,0.13332624733448029},
{-0.14422915875911713,0.011100590229034424,0.023306971415877342},
{-0.11167731136083603,-0.0829588994383812,0.08014095574617386}
},
{
{-0.03917115554213524,0.05309061333537102,-0.1800534874200821},
{-0.03856468200683594,0.17365068197250366,-0.22678913176059723},
{-0.0098166698589921,0.059835899621248245,-0.04070127010345459}
},
{
{0.23824730515480042,0.07008359581232071,-0.5083455443382263},
{0.2135791927576065,0.2968744933605194,-0.4282005727291107},
{0.21822156012058258,0.28961122035980225,-0.14375558495521545}
}
},
{
{
{0.15612444281578064,-0.05313962697982788,0.001954658655449748},
{-0.0510229617357254,0.01840769127011299,-0.013245704583823681},
{0.014227950014173985,0.025247156620025635,-0.09071659296751022}
},
{
{-0.10127004235982895,-0.4096907079219818,0.02776651829481125},
{-0.35760024189949036,0.02259216085076332,0.2913142442703247},
{0.054250568151474,0.32660508155822754,0.13141277432441711}
},
{
{-0.45335477590560913,-0.6351321935653687,0.04290077090263367},
{-0.5399315357208252,0.016602391377091408,0.49110355973243713},
{0.06071086600422859,0.5612871646881104,0.47091439366340637}
}
},
{
{
{0.14136548340320587,-0.017531730234622955,-0.04652515798807144},
{-0.05187952518463135,-0.17586560547351837,0.0057412320747971535},
{-0.024177666753530502,0.06511326879262924,0.07232735306024551}
},
{
{0.483334481716156,-0.17836464941501617,-0.1576889157295227},
{-0.1513056755065918,-0.6663179993629456,0.12898555397987366},
{-0.18488942086696625,0.11871226876974106,0.5367281436920166}
},
{
{0.4239000082015991,-0.1431313008069992,-0.11808623373508453},
{-0.10640263557434082,-0.5688046216964722,0.10138188302516937},
{-0.16127413511276245,0.06401358544826508,0.46339067816734314}
}
},
{
{
{-0.08759111166000366,-0.48830074071884155,-0.36768588423728943},
{0.41912928223609924,-0.04620237648487091,-0.407633513212204},
{0.47940507531166077,0.45992910861968994,0.04026476666331291}
},
{
{-0.01806371845304966,-0.08062704652547836,-0.11148033291101456},
{0.057933077216148376,0.004731790162622929,-0.09618540853261948},
{0.09765468537807465,0.09580212831497192,-0.013698171824216843}
},
{
{0.09557583183050156,0.5870927572250366,0.47092491388320923},
{-0.4757612943649292,0.03787609562277794,0.48923709988594055},
{-0.5560870170593262,-0.5580074191093445,-0.031096873804926872}
}
},
{
{
{0.4527035057544708,0.27994024753570557,-0.2012099176645279},
{0.43642833828926086,-0.0007685236050747335,-0.42017218470573425},
{0.19859959185123444,-0.28359588980674744,-0.40670108795166016}
},
{
{0.21764709055423737,0.08055577427148819,-0.11779037863016129},
{0.16500289738178253,-0.02815142646431923,-0.1911429464817047},
{0.050039228051900864,-0.14409688115119934,-0.16685010492801666}
},
{
{-0.6259151697158813,-0.34867531061172485,0.25892457365989685},
{-0.5829715132713318,0.04853476211428642,0.5968940854072571},
{-0.2499786764383316,0.4184688329696655,0.5437287092208862}
}
},
{
{
{0.10383071005344391,-0.11921984702348709,0.04322890192270279},
{-0.07068236917257309,-0.36299166083335876,-0.05508795380592346},
{0.023916399106383324,-0.14574655890464783,0.06717617809772491}
},
{
{-0.11386048793792725,-0.2952946424484253,-0.10774359107017517},
{-0.2507784068584442,-0.4568323791027069,-0.14790041744709015},
{-0.1477477103471756,-0.28505244851112366,-0.05020137131214142}
},
{
{0.04812021926045418,0.3793579041957855,0.06536314636468887},
{0.26687875390052795,0.6597211360931396,0.1864117830991745},
{0.12590506672859192,0.3578059673309326,0.015848319977521896}
}
},
{
{
{-0.02998732589185238,-0.16905461251735687,0.1711331456899643},
{0.13957735896110535,-0.1855742335319519,-0.15263335406780243},
{0.14311355352401733,0.08761756122112274,0.006646632682532072}
},
{
{-0.04710741341114044,-0.5232874155044556,0.10322067886590958},
{0.4303250014781952,-0.3366832733154297,-0.5130994915962219},
{0.4193495213985443,0.42501696944236755,0.013669121079146862}
},
{
{-0.013784589245915413,-0.3641434907913208,0.06131329759955406},
{0.31775766611099243,-0.25477370619773865,-0.3791889250278473},
{0.27182188630104065,0.32966548204421997,0.039444852620363235}
}
},
{
{
{-0.21103854477405548,-0.25887376070022583,-0.16549868881702423},
{-0.03960584104061127,-0.03632863238453865,0.01986011490225792},
{0.20197725296020508,0.2828846871852875,0.19058135151863098}
},
{
{-0.560405969619751,-0.7218360304832458,-0.5146939158439636},
{-0.04163435474038124,-0.0160234272480011,0.06202774867415428},
{0.5785826444625854,0.7288157343864441,0.5018356442451477}
},
{
{-0.41922828555107117,-0.49911418557167053,-0.34706059098243713},
{-0.032210271805524826,-0.043266456574201584,0.05135757103562355},
{0.4491671919822693,0.49358710646629333,0.3507413864135742}
}
},
{
{
{0.2086355984210968,-0.28967759013175964,0.06578212231397629},
{-0.2960970997810364,0.5765640139579773,-0.2305757701396942},
{0.09926223009824753,-0.2684692144393921,0.15073157846927643}
},
{
{0.21862280368804932,-0.3715512752532959,0.12317229062318802},
{-0.4586842954158783,0.7953175902366638,-0.3227611482143402},
{0.14457374811172485,-0.33110126852989197,0.15770785510540009}
},
{
{0.19567462801933289,-0.3306958079338074,0.1491578072309494},
{-0.3594190180301666,0.6034531593322754,-0.2675830125808716},
{0.164540633559227,-0.2598720192909241,0.1145629808306694}
}
},
{
{
{-0.30212661623954773,-0.4272545278072357,-0.15548187494277954},
{-0.3247612714767456,-0.4523686170578003,-0.11397251486778259},
{-0.11291805654764175,-0.2121293991804123,0.03375841677188873}
},
{
{0.2382667362689972,0.23850291967391968,0.059111155569553375},
{0.253436803817749,0.2665172517299652,0.09068876504898071},
{0.16335569322109222,0.11793091148138046,0.0043446714989840984}
},
{
{-0.0174308679997921,0.12185055762529373,-0.03741251677274704},
{0.04885006695985794,0.18564473092556,0.03520593047142029},
{-0.045471206307411194,0.06478340178728104,-0.022620555013418198}
}
},
{
{
{0.12270566076040268,0.020159460604190826,-0.15136565268039703},
{-0.3167765736579895,-0.026704369112849236,0.366925984621048},
{0.19410936534404755,0.02669219672679901,-0.22385115921497345}
},
{
{0.26956361532211304,0.02081156149506569,-0.321487158536911},
{-0.61033695936203,-0.09031923860311508,0.6964435577392578},
{0.3438304364681244,0.06332016736268997,-0.3995335102081299}
},
{
{0.25247862935066223,0.00006975954602239653,-0.2977861762046814},
{-0.4034864008426666,-0.06964030116796494,0.5242570638656616},
{0.19261690974235535,0.02527921088039875,-0.21883496642112732}
}
},
{
{
{-0.2829492688179016,-0.026206865906715393,0.04497512802481651},
{0.026799872517585754,0.26123395562171936,0.12608973681926727},
{0.03317205235362053,0.07176420092582703,-0.23573918640613556}
},
{
{-0.6563742756843567,-0.07678484916687012,0.14190979301929474},
{0.016950251534581184,0.6568924188613892,0.2463405430316925},
{0.09347309917211533,0.14754162728786469,-0.5610290169715881}
},
{
{-0.42542266845703125,-0.09225945174694061,0.059304360300302505},
{0.007025490049272776,0.4380008578300476,0.17754517495632172},
{0.11132533103227615,0.13084517419338226,-0.4017162621021271}
}
},
{
{
{0.03509090095758438,-0.20993781089782715,0.1859002411365509},
{0.08315017819404602,-0.33829569816589355,0.27596330642700195},
{0.01765604130923748,-0.2072562575340271,0.16202764213085175}
},
{
{0.15680637955665588,-0.5032191872596741,0.3414057791233063},
{0.24423693120479584,-0.7527161240577698,0.5132725238800049},
{0.13015957176685333,-0.492794930934906,0.3402944803237915}
},
{
{0.1668568104505539,-0.3623720109462738,0.16391287744045258},
{0.26602882146835327,-0.49319988489151,0.27500930428504944},
{0.1525495946407318,-0.3368476629257202,0.18234223127365112}
}
},
{
{
{0.1754128783941269,0.014375300146639347,-0.18516135215759277},
{0.22898505628108978,-0.0015558380400761962,-0.24798616766929626},
{0.21665765345096588,0.019003354012966156,-0.19172032177448273}
},
{
{0.40565022826194763,0.02957662008702755,-0.4143141508102417},
{0.49585026502609253,0.024315258488059044,-0.546090841293335},
{0.4038494825363159,0.02679125964641571,-0.4564680755138397}
},
{
{0.3098422586917877,0.016724800691008568,-0.3167508840560913},
{0.36904555559158325,0.0050119967199862,-0.3638631999492645},
{0.2784842848777771,0.01013951189815998,-0.2923387587070465}
}
},
{
{
{0.03270258754491806,0.13280975818634033,0.10799568891525269},
{0.07305370271205902,0.21237654983997345,0.1487412303686142},
{0.15827114880084991,0.22871553897857666,0.07070262730121613}
},
{
{0.22773167490959167,0.05065840110182762,-0.03146109730005264},
{0.09042012691497803,-0.0077368286438286304,-0.012369089759886265},
{0.017337212339043617,-0.039785150438547134,-0.09778407216072083}
},
{
{0.16403017938137054,-0.14056789875030518,-0.17518357932567596},
{-0.07451830059289932,-0.2683892846107483,-0.1987908035516739},
{-0.20167940855026245,-0.27800801396369934,-0.19361081719398499}
}
},
{
{
{-0.2522916793823242,0.2982653081417084,0.5839829444885254},
{-0.5242391228675842,-0.09509619325399399,0.5085963010787964},
{-0.4895037114620209,-0.3927208185195923,0.18143972754478455}
},
{
{0.08447679132223129,-0.04663950949907303,-0.1598641276359558},
{0.1801910400390625,0.07299600541591644,-0.08583630621433258},
{0.13473761081695557,0.11823210120201111,0.02780606970191002}
},
{
{0.14858628809452057,-0.23896673321723938,-0.36118167638778687},
{0.3247551918029785,0.03158830478787422,-0.34669336676597595},
{0.260703444480896,0.2329556941986084,-0.17941471934318542}
}
},
{
{
{0.28094789385795593,0.3729449212551117,0.3630378246307373},
{0.040921054780483246,-0.02137773670256138,-0.09824918210506439},
{-0.35291528701782227,-0.32957687973976135,-0.27886712551116943}
},
{
{-0.0011043575359508395,0.08449491113424301,0.14174450933933258},
{0.14217524230480194,-0.012905023992061615,-0.14867624640464783},
{-0.14523722231388092,-0.0487620048224926,0.031096817925572395}
},
{
{-0.46838024258613586,-0.4550410807132721,-0.30231696367263794},
{0.138284370303154,-0.00921616330742836,-0.12752090394496918},
{0.32101011276245117,0.440813273191452,0.4349895715713501}
}
},
{
{
{0.12073507905006409,-0.13554087281227112,-0.42161890864372253},
{0.25926852226257324,0.23769254982471466,-0.2819966673851013},
{0.08335789293050766,0.25336337089538574,-0.0713803842663765}
},
{
{0.17314180731773376,-0.180817648768425,-0.5085001587867737},
{0.3169286847114563,0.3301277458667755,-0.3671807050704956},
{-0.020975949242711067,0.2853029668331146,-0.07609911262989044}
},
{
{-0.028035329654812813,0.03931069374084473,0.07595985382795334},
{-0.06291661411523819,0.156880721449852,0.07221323251724243},
{-0.313181072473526,-0.005611644126474857,0.07725203782320023}
}
},
{
{
{-0.20135027170181274,-0.009564517065882683,0.21878843009471893},
{-0.29840853810310364,-0.018365085124969482,0.3098183274269104},
{-0.24231106042861938,0.0042337714694440365,0.24871781468391418}
},
{
{-0.40632763504981995,0.005285837687551975,0.4282884895801544},
{-0.5861677527427673,-0.01618374139070511,0.5501425266265869},
{-0.4447208046913147,-0.0026183926966041327,0.44260627031326294}
},
{
{-0.1564091145992279,-0.022921178489923477,0.18694452941417694},
{-0.2692050635814667,-0.029793230816721916,0.2749987840652466},
{-0.2005908042192459,0.009087848477065563,0.22046378254890442}
}
},
{
{
{-0.0786362886428833,0.0333779938519001,0.1582050621509552},
{-0.04750015214085579,-0.1776449978351593,0.0005032451008446515},
{0.14897604286670685,-0.02566937357187271,-0.06661083549261093}
},
{
{-0.2575087249279022,-0.03090396150946617,0.5422026515007019},
{-0.020521070808172226,-0.6834047436714172,-0.026573345065116882},
{0.5435383915901184,-0.014955288730561733,-0.22856934368610382}
},
{
{-0.1234736442565918,0.007615440059453249,0.4057934284210205},
{-0.02489415369927883,-0.5141916871070862,-0.026771826669573784},
{0.38470157980918884,-0.01671537384390831,-0.16692422330379486}
}
},
{
{
{0.11837057769298553,-0.2632773518562317,0.1539219319820404},
{0.027181582525372505,0.025239862501621246,-0.0226710494607687},
{-0.16655777394771576,0.3213067948818207,-0.19022826850414276}
},
{
{0.2892896831035614,-0.6462751030921936,0.3827235996723175},
{0.08225299417972565,-0.06093559414148331,-0.02701384760439396},
{-0.34848397970199585,0.6760938763618469,-0.36129412055015564}
},
{
{0.21362918615341187,-0.4440934658050537,0.25675758719444275},
{0.08810558915138245,-0.07284390181303024,-0.009266967885196209},
{-0.26305702328681946,0.4652392566204071,-0.23450681567192078}
}
},
{
{
{0.16845804452896118,0.18075031042099,-0.014569818042218685},
{0.21472030878067017,-0.1353185474872589,-0.1922024041414261},
{-0.0473410040140152,-0.23089011013507843,0.07325081527233124}
},
{
{0.4545864164829254,0.35139718651771545,-0.0836896002292633},
{0.42985132336616516,-0.37035131454467773,-0.43790167570114136},
{-0.07562774419784546,-0.4803520143032074,0.16880019009113312}
},
{
{0.20154890418052673,0.19702482223510742,-0.010451309382915497},
{0.26956892013549805,-0.2755501866340637,-0.21725350618362427},
{-0.037966396659612656,-0.2928299903869629,0.18955914676189423}
}
}
};